{
  "type": "optimized_lightweight",
  "version": "3.0",
  "accuracy": 0.9016641452344932,
  "fake_indicators": [
    "2016",
    "october",
    "october 2016",
    "november 2016",
    "article",
    "november",
    "ber 2",
    "16 ",
    "wikileaks",
    "r 201",
    "er 20",
    "er 2",
    "r 20",
    "r 2",
    "016",
    "2016",
    "oct",
    " oc",
    "share",
    "016 ",
    "2016 ",
    "russia",
    "print",
    "podesta",
    " 2016",
    "lla",
    " russ",
    " rus",
    "ssia",
    "russi",
    "ussia",
    "obe",
    "ober",
    "llar",
    "oct",
    " hil",
    "ta ",
    " hill",
    "illa",
    "ia ",
    "hill",
    "sia",
    "photo",
    "er ",
    "posted",
    "illar",
    "ber ",
    "llary",
    "dest",
    "hilla",
    "mainstream",
    "lary",
    " da",
    "lary ",
    "ussi",
    " sha",
    "rea",
    "advertisement",
    "russ",
    "sex",
    "source",
    "sha",
    "vem",
    "oct 2016",
    "ovem",
    "sia ",
    "snip",
    "free",
    "shar",
    "201",
    "corrupt",
    "ssia ",
    " sh",
    "stated",
    "email",
    "uss",
    " hi",
    "mainstream media",
    " ar",
    "yri",
    "hil",
    "jewish",
    "ank",
    "nominee hillary",
    "nominee hillary clinton",
    " ban",
    "clinton foundation",
    "ian",
    "nov",
    "ban",
    "sexual",
    " shar",
    "el ",
    " elec",
    "est",
    "ly ",
    "john podesta",
    "permission",
    "corruption",
    "syr",
    "hillary",
    "fbi",
    "published",
    " 201",
    "presidential election",
    "ame",
    " do",
    "crimes",
    "rock",
    "elec",
    "cto",
    "presidential nominee hillary",
    "elect",
    "god",
    "russian",
    " ele",
    "ish ",
    "esta",
    "image",
    "mosul",
    "green",
    "ish",
    "vote",
    "soros",
    "rus",
    "planet",
    "share article",
    "mail",
    "corporate",
    "lect",
    "mus",
    "food",
    "ber",
    "tags",
    "trea",
    "sent",
    "nov 2016",
    "in ",
    "israel",
    "post",
    "power",
    "bi ",
    " wi",
    " so",
    "lec"
  ],
  "real_indicators": [
    " sa",
    " said",
    "said",
    " sai",
    "sai",
    "aid",
    "ate",
    "said ",
    "thats",
    "aid ",
    "cruz",
    "trumps",
    "said",
    "dont",
    "nomination",
    "campaign",
    "sanders",
    "primary",
    "obama",
    "id ",
    "gop",
    "republican",
    "fox news",
    "ers",
    "conservative",
    "fox",
    "friday",
    "debate",
    "es ",
    "theres",
    "sande",
    "candidates",
    "ate ",
    "didnt",
    "race",
    "day",
    "convention",
    "republicans",
    "cruz",
    "ay ",
    " cruz",
    "ruz",
    "speech",
    "nt ",
    "day ",
    "told",
    "new",
    "lican",
    "labor",
    "press",
    "americas",
    "con",
    "associated press",
    "cruz ",
    "ruz ",
    "president",
    "attacks",
    " job",
    "political",
    "jobs",
    "blica",
    "job",
    "ryan",
    "can",
    "uz ",
    "ump",
    "nom",
    "ander",
    " pres",
    " trum",
    "rules",
    "iowa",
    "saying",
    "rump",
    "nomin",
    "trump",
    "epubl",
    "epub",
    "sen",
    "clintons",
    "frontrunner",
    "lica",
    " nomi",
    "repub",
    "trum",
    "repu",
    "ublic",
    "blic",
    "voters",
    "say",
    "rubio",
    "epu",
    "state",
    "governor",
    " cru",
    "tes",
    " nom",
    "hampshire",
    "new hampshire",
    "rum",
    "cru",
    "monday",
    "cnn",
    "ted cruz",
    "ted",
    "saturday",
    "week",
    "2008",
    "rs ",
    " sand",
    "later",
    "ates ",
    " say",
    "doesnt",
    "night",
    "presidential",
    "presumptive",
    "ohio",
    "nomi",
    "delegates",
    "washington",
    "bate",
    " con",
    "debat",
    "gov",
    "ers ",
    "ebat",
    "percent",
    "theyre",
    "ebate",
    "conference",
    "s c",
    "mps",
    "ican",
    "say",
    " de",
    "bush",
    " deba",
    "hes",
    "job",
    "mrs",
    " repu",
    "nders",
    "s s",
    "sunday",
    "democratic",
    "running",
    "mrs clinton",
    "ates",
    "senator"
  ],
  "fake_weights": {
    "2016": 0.9510162454193458,
    "october": 1.5249235635219973,
    "october 2016": 1.5155616330819863,
    "november 2016": 1.4722413106899443,
    "article": 1.275497729873056,
    "november": 1.0998505005292372,
    "ber 2": 1.058510889244162,
    "16 ": 1.0196838807445547,
    "wikileaks": 1.0151540309308091,
    "r 201": 1.0141147079593935,
    "er 20": 1.006738466774193,
    "er 2": 0.995636604695296,
    "r 20": 0.9891087664067871,
    "r 2": 0.9727938833615294,
    "016": 0.9597872611565196,
    "oct": 0.7313735004681071,
    " oc": 0.9387233160871798,
    "share": 0.9224583415059578,
    "016 ": 0.9203150580212895,
    "2016 ": 0.9152816390854378,
    "russia": 0.9088655729777163,
    "print": 0.8588411629009854,
    "podesta": 0.8578355765203247,
    " 2016": 0.8276035956804749,
    "lla": 0.8243219078332756,
    " russ": 0.8092240095328155,
    " rus": 0.7980259526948217,
    "ssia": 0.7934201119228087,
    "russi": 0.7908734164870775,
    "ussia": 0.7882429056684503,
    "obe": 0.7878138855801974,
    "ober": 0.7501881726055332,
    "llar": 0.7479734680779592,
    " hil": 0.7246585535395614,
    "ta ": 0.7172075370079947,
    " hill": 0.7060411006836961,
    "illa": 0.7055722855608706,
    "ia ": 0.6993018497022802,
    "hill": 0.6892857120302182,
    "sia": 0.6855177730937728,
    "photo": 0.67986143552328,
    "er ": 0.6722206446727769,
    "posted": 0.6712525534002931,
    "illar": 0.6711766223328592,
    "ber ": 0.6681176941121139,
    "llary": 0.6678037198802081,
    "dest": 0.6673814911800393,
    "hilla": 0.6641265164723386,
    "mainstream": 0.6604482221899429,
    "lary": 0.6589359683219559,
    " da": 0.6556335911348953,
    "lary ": 0.6403100909120988,
    "ussi": 0.6304668092643155,
    " sha": 0.6262802760638656,
    "rea": 0.6224217024705272,
    "advertisement": 0.6163284521738923,
    "russ": 0.6119905640953183,
    "sex": 0.5967436004595429,
    "source": 0.592699981436191,
    "sha": 0.5826160876630763,
    "vem": 0.582127311714397,
    "oct 2016": 0.5807846555530419,
    "ovem": 0.5789727644469236,
    "sia ": 0.5775942426035181,
    "snip": 0.5753700320097396,
    "free": 0.5658686076075344,
    "shar": 0.5629975475619219,
    "201": 0.5582616288339558,
    "corrupt": 0.5573609487382676,
    "ssia ": 0.5544104066279505,
    " sh": 0.5507606043231764,
    "stated": 0.5442780094661368,
    "email": 0.542206437875078,
    "uss": 0.5419770721216939,
    " hi": 0.5417359012700877,
    "mainstream media": 0.5390195721842284,
    " ar": 0.5356340016642971,
    "yri": 0.5355015013455457,
    "hil": 0.5301392035682199,
    "jewish": 0.5279947923157476,
    "ank": 0.5255770371187207,
    "nominee hillary": 0.5249703967298478,
    "nominee hillary clinton": 0.5215866326824552,
    " ban": 0.5205826161214385,
    "clinton foundation": 0.5202385760205408,
    "ian": 0.5149020709323693,
    "nov": 0.5064880745752818,
    "ban": 0.5038079956537617,
    "sexual": 0.49648270913060305,
    " shar": 0.4920589332186622,
    "el ": 0.4903710848899028,
    " elec": 0.48841076806231953,
    "est": 0.4861800629419097,
    "ly ": 0.4849395117572923,
    "john podesta": 0.48143919401602686,
    "permission": 0.4813190276845648,
    "corruption": 0.48028710383171774,
    "syr": 0.4794106588048194,
    "hillary": 0.4779458640085561,
    "fbi": 0.47741995246681435,
    "published": 0.47706546270546757,
    " 201": 0.4754516356267409,
    "presidential election": 0.47545112391809663,
    "ame": 0.473078121549243,
    " do": 0.4720519533060352,
    "crimes": 0.4711501650135556,
    "rock": 0.4705924015329682,
    "elec": 0.4678999161697276,
    "cto": 0.46628234633011273,
    "presidential nominee hillary": 0.46422524096694495,
    "elect": 0.4630127136693902,
    "god": 0.46274705123156745,
    "russian": 0.46261095827974336,
    " ele": 0.46108383713301027,
    "ish ": 0.46100395610241623,
    "esta": 0.4572578137002223,
    "image": 0.4553920394736336,
    "mosul": 0.45523492724570247,
    "green": 0.44992803017604244,
    "ish": 0.4481110819899649,
    "vote": 0.44726454260274895,
    "soros": 0.4469706602546226,
    "rus": 0.44417056636724445,
    "planet": 0.4429132103213978,
    "share article": 0.44133177687452435,
    "mail": 0.43765634723356794,
    "corporate": 0.4376175653401297,
    "lect": 0.43574452457714674,
    "mus": 0.4355771228099246,
    "food": 0.43556250807476743,
    "ber": 0.43429728345710905,
    "tags": 0.43284878923766973,
    "trea": 0.4297359901111879,
    "sent": 0.42920291336368743,
    "nov 2016": 0.427971318170343,
    "in ": 0.42593293422128736,
    "israel": 0.4253529359372426,
    "post": 0.42437509274680923,
    "power": 0.4243248737288526,
    "bi ": 0.42394108600532365,
    " wi": 0.42350533132136503,
    " so": 0.42229045257918096,
    "lec": 0.4222877221162664
  },
  "real_weights": {
    " sa": -1.5573635386968103,
    " said": -1.322925271954471,
    "said": -0.9951172282103931,
    " sai": -1.2957081679866882,
    "sai": -1.279753817135738,
    "aid": -1.2643751653484674,
    "ate": -1.2545422241929953,
    "said ": -1.2353964551069876,
    "thats": -1.1347129792060007,
    "aid ": -1.1239561113394978,
    "cruz": -0.7435227666118354,
    "trumps": -1.029745751243339,
    "dont": -0.9819452990888514,
    "nomination": -0.9706265529254888,
    "campaign": -0.9704161835705157,
    "sanders": -0.9373697376667947,
    "primary": -0.9294980755687133,
    "obama": -0.9239502033860854,
    "id ": -0.9221843217966845,
    "gop": -0.9175719414749305,
    "republican": -0.9170268036190942,
    "fox news": -0.9160736246057056,
    "ers": -0.897332340139134,
    "conservative": -0.8896808026977683,
    "fox": -0.8671368549572549,
    "friday": -0.8618870050866791,
    "debate": -0.8378644291491596,
    "es ": -0.8332232528271788,
    "theres": -0.8326569576097029,
    "sande": -0.8317135860349107,
    "candidates": -0.8093423692971073,
    "ate ": -0.7884107956816784,
    "didnt": -0.786878915472861,
    "race": -0.7773321165914716,
    "day": -0.767418151163635,
    "convention": -0.7584398580915026,
    "republicans": -0.7511241312249145,
    "ay ": -0.7427795636686941,
    " cruz": -0.7424608053835278,
    "ruz": -0.7421907552166056,
    "speech": -0.741303647372278,
    "nt ": -0.733683201368387,
    "day ": -0.7323528503376694,
    "told": -0.7251479707241844,
    "new": -0.722618704323497,
    "lican": -0.7197909850890052,
    "labor": -0.7144380817359988,
    "press": -0.7140875517029024,
    "americas": -0.7128877820194555,
    "con": -0.7080188398344359,
    "associated press": -0.7027961106799224,
    "cruz ": -0.7024298222847215,
    "ruz ": -0.7024298222847215,
    "president": -0.6981712986221538,
    "attacks": -0.6963160706334951,
    " job": -0.6903572286871846,
    "political": -0.690047511158806,
    "jobs": -0.6861956219003383,
    "blica": -0.6858389876167743,
    "job": -0.5662313574638053,
    "ryan": -0.6802762674035717,
    "can": -0.6800131925408021,
    "uz ": -0.6774942574523056,
    "ump": -0.6766651749934184,
    "nom": -0.6748118039232345,
    "ander": -0.6679644220689406,
    " pres": -0.6649942408503781,
    " trum": -0.6642908266543848,
    "rules": -0.6596976725103969,
    "iowa": -0.6593748135456028,
    "saying": -0.6589606465760918,
    "rump": -0.6588486693222069,
    "nomin": -0.6574337360260587,
    "trump": -0.6573701229896143,
    "epubl": -0.6570354624622983,
    "epub": -0.650219392234741,
    "sen": -0.6495673031044742,
    "clintons": -0.6494933504447203,
    "frontrunner": -0.6485383763394617,
    "lica": -0.6467760626683023,
    " nomi": -0.6465324756802361,
    "repub": -0.6464385026811992,
    "trum": -0.6456958046130647,
    "repu": -0.6425091922696986,
    "ublic": -0.641958437775283,
    "blic": -0.6394998237201598,
    "voters": -0.6384057576529375,
    "say": -0.5756373390298811,
    "rubio": -0.6360645467871573,
    "epu": -0.6341911010507606,
    "state": -0.634165876139904,
    "governor": -0.6335550831259327,
    " cru": -0.6323513738969625,
    "tes": -0.632170765723465,
    " nom": -0.6312921440572552,
    "hampshire": -0.6275068255302984,
    "new hampshire": -0.6246996246855884,
    "rum": -0.6231613856392677,
    "cru": -0.6201960689892803,
    "monday": -0.6192739269613072,
    "cnn": -0.6184677619109056,
    "ted cruz": -0.615246646059917,
    "ted": -0.6143010322971474,
    "saturday": -0.6136217063040752,
    "week": -0.6129207423856096,
    "2008": -0.6110102841937838,
    "rs ": -0.6100826958057994,
    " sand": -0.6093202148783387,
    "later": -0.608689319117021,
    "ates ": -0.608459291224379,
    " say": -0.6061394469341254,
    "doesnt": -0.5997702055438398,
    "night": -0.5990766153878557,
    "presidential": -0.595710484107733,
    "presumptive": -0.5944618322456983,
    "ohio": -0.5944422099017264,
    "nomi": -0.5925273439867553,
    "delegates": -0.5916188023510246,
    "washington": -0.5912285650744762,
    "bate": -0.5908481389739177,
    " con": -0.5908390949714585,
    "debat": -0.5880137306571804,
    "gov": -0.5877414013513348,
    "ers ": -0.5847778270578041,
    "ebat": -0.5825260863148253,
    "percent": -0.5825151398201607,
    "theyre": -0.5808410569144002,
    "ebate": -0.5798799952907381,
    "conference": -0.5788843100146167,
    "s c": -0.5762701773697302,
    "mps": -0.575858883337434,
    "ican": -0.5757622406641385,
    " de": -0.5738928535662547,
    "bush": -0.5729336346595932,
    " deba": -0.568670457237784,
    "hes": -0.5672615032863585,
    "mrs": -0.5656282488466743,
    " repu": -0.5654896121769595,
    "nders": -0.5617108014273215,
    "s s": -0.5605851450434581,
    "sunday": -0.5595226881729071,
    "democratic": -0.5591568382462515,
    "running": -0.5561972683881473,
    "mrs clinton": -0.5551525288779553,
    "ates": -0.5528849683721673,
    "senator": -0.5525236566921735
  },
  "intercept": 2.3559177643014335,
  "threshold": 0.0,
  "confidence_multiplier": 0.15,
  "model_info": {
    "total_samples": 4403,
    "total_features": 25000,
    "selected_features": 295,
    "training_method": "ensemble_logistic_nb"
  }
}